17 100
<unk>	0.06386930495500565 0.07458896189928055 -0.05979466438293457 0.0688016414642334 -0.06784442067146301 -0.05009966343641281 -0.04828618839383125 -0.055099379271268845 -0.039948925375938416 -0.07497677952051163 -0.04473719745874405 0.04410751909017563 -0.06351207941770554 -0.06747788935899734 -0.05628688633441925 -0.06277534365653992 0.07348062843084335 0.06367073953151703 -0.06982675939798355 -0.05011448636651039 -0.06819591671228409 0.06591171771287918 -0.0647796019911766 0.06205899640917778 -0.06604897975921631 -0.05495604872703552 0.06056126207113266 -0.04745255038142204 -0.07133001834154129 0.06206022575497627 0.054307710379362106 -0.03758621960878372 0.06467721611261368 -0.04503500834107399 0.043713681399822235 0.0624404214322567 0.05702370032668114 0.0754958912730217 0.06445031613111496 -0.054279912263154984 -0.07457540184259415 0.044104475528001785 -0.0467425212264061 -0.042786989361047745 -0.0480864942073822 0.05704086273908615 0.05459096282720566 -0.06520070135593414 0.06310722231864929 -0.06572633981704712 -0.06878964602947235 -0.06444335728883743 -0.06708750128746033 -0.06007800251245499 0.06427906453609467 -0.0468156673014164 -0.05693775415420532 -0.05021212249994278 0.06788674741983414 -0.07312975078821182 0.0786915272474289 0.06373463571071625 0.06140828877687454 0.06713445484638214 0.06864052265882492 -0.06915627419948578 0.06524385511875153 0.06320224702358246 0.068508580327034 0.06437241286039352 0.0622173510491848 0.06398836523294449 -0.03662452474236488 -0.05078612267971039 -0.06274838000535965 0.07326848804950714 0.052527882158756256 0.06110114976763725 0.06549401581287384 0.05700210481882095 0.06917446851730347 0.06388527899980545 0.06123753637075424 -0.06440766900777817 0.0687171220779419 0.06925656646490097 0.06597106903791428 -0.06651653349399567 -0.06464802473783493 -0.052236273884773254 -0.06930065900087357 -0.0434562973678112 0.05076377093791962 0.06528990715742111 0.06596928834915161 -0.06347161531448364 0.04205992817878723 -0.06352852284908295 0.05736415088176727 -0.06646998971700668 
rt	-0.005215794779360294 -0.007302718237042427 0.006312238983809948 -0.0051231421530246735 -3.234250470995903e-05 0.0064266035333275795 0.00536910817027092 0.00408175541087985 -0.00781533308327198 0.008038626052439213 -0.0009995875880122185 0.005892998538911343 0.007486050482839346 0.0037165815010666847 -0.00015456462278962135 0.003712044795975089 -0.005154996644705534 -0.0039472421631217 0.00438106432557106 -0.0034084042999893427 0.007204767316579819 -0.0033164494670927525 0.003282603807747364 -0.0029505749698728323 0.003972476348280907 0.00034425873309373856 0.0013444751966744661 0.0027759314980357885 0.003361162729561329 -0.00393613101914525 0.0006275065243244171 -0.0009825769811868668 -0.0036506180185824633 -0.003877338720485568 0.004884310998022556 -0.002497358713299036 -0.007224521599709988 0.00048619857989251614 -0.0064247529953718185 0.00030349637381732464 0.0044205812737345695 0.0015858038095757365 0.0010471725836396217 -0.002201379043981433 0.0032799518667161465 0.00039220438338816166 -0.0027746616397053003 1.8333550542593002e-05 -0.00635023508220911 0.0011004242114722729 0.00534454919397831 0.006406916305422783 -0.00026513473130762577 0.0017684673657640815 -0.00407367292791605 0.0017777630127966404 0.005449536722153425 -0.0007206269074231386 -0.00020443322136998177 -0.0011445365380495787 -0.0005203569307923317 -0.0058907740749418736 -0.0005462411791086197 -0.006816817447543144 0.0005231993272900581 0.005691140424460173 -0.00815562717616558 -0.0009106402285397053 -0.004727493971586227 -0.007011516951024532 0.00133301573805511 0.0013516054023057222 -0.003137571970000863 0.0005077570676803589 0.0028337263502180576 -0.0017990031046792865 -0.004797270987182856 0.00015935348346829414 -0.005698448978364468 0.006108408328145742 -0.0016016274457797408 -0.006932862102985382 -0.003381379647180438 0.005051843356341124 -0.005343303084373474 -0.002215428277850151 -0.004858457949012518 -0.0002493408974260092 0.005842020735144615 -1.378287561237812e-05 0.004363625776022673 0.0030933686066418886 -0.004341427236795425 -0.007559588178992271 -0.001223296276293695 0.000113664660602808 0.0020645405165851116 -0.0015857373364269733 0.0020861681550741196 -0.001023138640448451 
es	0.0015875634271651506 0.001045749057084322 -8.788960985839367e-05 -0.004944492131471634 0.004124728962779045 0.0003486087080091238 0.0008589481003582478 -0.0008585392497479916 -0.004020203370600939 0.0005343277007341385 0.00642791111022234 0.006127870641648769 0.006254721898585558 0.00490492582321167 0.006173352710902691 -0.0016883548814803362 -0.0007102235686033964 -0.004168026149272919 0.0059447139501571655 -0.0030298978090286255 0.005770070478320122 -0.0030701379291713238 0.001994003541767597 -0.004037095233798027 0.0015426158206537366 0.00132221810054034 0.004471156280487776 6.746756844222546e-05 -0.0006439650896936655 -0.001306402962654829 -0.002456314628943801 0.008011269383132458 -0.004565957933664322 -0.002137774135917425 0.0005244892090559006 -0.0022546707186847925 0.0009542212355881929 -0.007863232865929604 -0.0016839439049363136 0.001542534795589745 0.004515016917139292 -0.000680502038449049 0.000705155311152339 -0.0020604440942406654 -0.00036049424670636654 0.0020873364992439747 -5.2495626732707024e-05 -0.0012101992033421993 0.0016869876999408007 0.0007681441493332386 0.0018339288653805852 0.005704985465854406 0.0026995560619980097 -0.0013985633850097656 -0.0021322406828403473 -0.0022933080326765776 -0.008042492903769016 -0.007134098559617996 -0.0003207111731171608 -0.0006935268174856901 -0.000825588358566165 -0.00402418989688158 -0.003810388268902898 0.0002965964376926422 -0.002774376654997468 0.0028359750285744667 0.0006200901698321104 -9.752903133630753e-05 -0.006640778388828039 -0.008013480342924595 0.007376127876341343 -0.003216571407392621 -0.006681083235889673 0.0024565099738538265 0.004313278943300247 -0.0071052019484341145 -0.0068319630809128284 -0.003911013249307871 0.0006905351765453815 0.0017498764209449291 0.001742667518556118 -0.0080814678221941 -0.00035355216823518276 0.00035923835821449757 -0.002687078434973955 -0.00014639133587479591 -0.00036730943247675896 -0.0006007112096995115 0.004794565495103598 0.005283518694341183 0.0026610088534653187 0.006616897881031036 -0.0058442894369363785 -0.005201942287385464 -0.00521194888278842 -0.0012979332823306322 0.00027132476679980755 0.0063933925703167915 0.005042509641498327 0.0028975186869502068 
der	-0.0005281991325318813 -0.002188019687309861 -0.001946250326000154 -0.0024802894331514835 0.0065399836748838425 -0.001598696457222104 0.001767132431268692 0.0005744944792240858 0.0003104591742157936 0.005392788909375668 -0.0044088358990848064 -0.006017100065946579 0.0004963278770446777 0.004110461100935936 -0.0007786431815475225 -0.0015508041251450777 0.0003366549499332905 -0.004859453532844782 0.0030329457949846983 0.00466148741543293 0.0023330755066126585 -0.004586908966302872 0.005455185659229755 0.0012313356855884194 8.249003440141678e-05 0.00011480087414383888 -0.0029773202259093523 -0.007179353851824999 0.002446443773806095 0.00022780243307352066 -0.00034074950963258743 -0.005499284714460373 -0.005432809703052044 -0.0016044974327087402 -0.0065521132200956345 -0.006810909137129784 0.001778744044713676 -0.0003670251462608576 -0.0006578110624104738 -0.006339525803923607 0.007414734922349453 0.0014589647762477398 -0.0050594094209373 0.0018779747188091278 -0.001061578979715705 -0.0035686157643795013 0.0005951933562755585 0.00342369033023715 -0.0007016139570623636 -0.000343753257766366 0.003449444891884923 -0.00030144350603222847 0.0001924559473991394 -0.0031384630128741264 -0.0036053566727787256 -0.0010377040598541498 0.001010228181257844 0.0013936837203800678 -0.00564896035939455 0.003507162444293499 -0.0034035593271255493 -0.0006220664363354445 0.0008356110192835331 -0.007652696222066879 -0.00525991665199399 0.00028592045418918133 -0.005529295187443495 -0.002117348834872246 -0.0009321030229330063 -0.006213366985321045 -0.0031185010448098183 -0.003685341915115714 0.0026840665377676487 -0.0010307610500603914 -0.0014581277500838041 -0.007269354071468115 0.0034341488499194384 -0.0003666318953037262 0.0011473542544990778 -0.0001946913544088602 0.001113928621634841 -0.0023090243339538574 -0.0017372267320752144 -0.0017447832506150007 -0.0025628595612943172 -0.0039901090785861015 0.0013626418076455593 0.003932541701942682 -0.002402917016297579 0.001035019988194108 0.002069959882646799 -0.004514564760029316 0.002203220734372735 -0.004252489656209946 -0.006282196380198002 -0.0016901199705898762 -0.0029687678907066584 -0.0063802385702729225 0.0005218880251049995 0.0044401767663657665 
das	0.0022886833176016808 -0.002012065378949046 -0.00410007918253541 -0.0047707585617899895 -0.0032119364477694035 -0.0008120453567244112 -0.0028015817515552044 -0.00204637018032372 0.00294948136433959 0.00372114684432745 -0.0043537248857319355 0.0011018792865797877 -0.002410013461485505 0.0018618737813085318 -0.004382402170449495 0.0021687750704586506 -0.0038643397856503725 0.0005746824899688363 0.0016312417574226856 0.002268912736326456 0.0013262127758935094 0.003910302650183439 0.0011137037072330713 -0.0026488592848181725 0.004844882525503635 -0.002104511484503746 -0.0035511928144842386 -0.001626954646781087 0.000521924695931375 0.0049398234114050865 0.0017667582724243402 0.003945126198232174 0.002968664513900876 0.0037755584344267845 0.00297098932787776 -0.0017553255893290043 -0.001403297414071858 -0.004967005457729101 -0.0026736280415207148 0.0020379757042974234 0.004652705974876881 0.0032387766987085342 -0.0030875238589942455 -0.0018365740543231368 -0.004238833673298359 -0.003021295415237546 -0.0027550403028726578 0.0046930392272770405 -0.002317574340850115 0.002089903922751546 -0.0043140617199242115 0.0021585787180811167 -0.004325191956013441 0.0005622740718536079 0.002618191298097372 0.0001957948406925425 0.002098673488944769 -0.0018244873499497771 -0.0017929772147908807 0.0013485053787007928 -0.0031132770236581564 -0.002365760039538145 -0.0013125375844538212 0.00456372182816267 -0.002430951688438654 0.0003572518180590123 -0.0032838836777955294 -0.0030557899735867977 0.003654381725937128 0.003630462335422635 -0.0018425927264615893 -0.0005597957642748952 -0.0016379327280446887 -0.004008457064628601 0.0033268609549850225 0.0013413917040452361 -0.0001990601740544662 -0.0005004649865441024 -0.0009559805039316416 0.0019477008609101176 -0.003722062101587653 -0.004403683822602034 -0.003410742385312915 0.004691774491220713 0.0020434726029634476 -0.000534358317963779 9.861043508863077e-05 0.004153979476541281 0.0019163519609719515 -0.0014622462913393974 -0.004802033770829439 -0.00436432147398591 -0.003138207830488682 -0.003472752869129181 0.004858235828578472 -0.0040282909758389 0.0010866502998396754 -0.0026935033965855837 -0.0032864653039723635 0.004788451828062534 
die	0.00035773497074842453 0.001791883958503604 -0.001838573021814227 -0.005726046860218048 0.003666867967694998 0.0014632628299295902 0.003666867967694998 -0.0012260881485417485 -0.006594391539692879 0.00603776378557086 0.0017839634092524648 0.0017170862993225455 0.006399757694453001 0.005302910692989826 0.004103942308574915 -0.001619468443095684 -0.0002538382541388273 -0.0027421663980931044 0.0010462962090969086 0.0016515834722667933 0.005295143462717533 -0.005842023529112339 0.00038122921250760555 -0.007544931024312973 -9.848037734627724e-06 8.273636922240257e-05 0.00578598165884614 0.0028046926017850637 0.005448507145047188 -0.0033806446008384228 -0.006089689675718546 0.00635121762752533 0.0017650972586125135 -0.005312947556376457 0.0019149763975292444 0.00032789609394967556 -0.001796623575501144 -0.006675777956843376 -0.008116465993225574 -6.171711720526218e-05 0.00425374461337924 0.00802726298570633 -0.00022049713879823685 -0.0001748946961015463 -0.007860180921852589 0.006285412237048149 -0.003251726273447275 0.006496768444776535 -0.002741471864283085 0.006241189315915108 0.0010124596301466227 0.004808953497558832 0.007063373923301697 0.0048250374384224415 -0.004176684655249119 0.0013014236465096474 0.0002819932997226715 0.0014358956832438707 0.0017404388636350632 0.006069689989089966 0.0018109800294041634 0.0012582163326442242 -0.006556038744747639 -0.004049772396683693 -0.004812734667211771 0.001749823335558176 0.0014862511307001114 -0.0006094346754252911 -0.007171302102506161 -0.0001294342800974846 -0.0007371166720986366 -0.00603411253541708 -0.001977161969989538 0.0016127164708450437 0.0030567017383873463 0.00018762657418847084 0.0015456604305654764 -0.007615928538143635 -0.003914856351912022 0.0014954530633985996 -0.0023343567736446857 -0.0025926344096660614 -0.0077203186228871346 0.0009676006156951189 -0.006935355253517628 -0.004975863732397556 -0.0019416564609855413 0.004885042551904917 0.0018378898967057467 0.0009074562694877386 0.0007074980530887842 0.0030767431017011404 0.0009115687571465969 0.000959339551627636 -0.002008817857131362 -0.0005389824509620667 -0.0006911840755492449 0.003056248417124152 0.0023221345618367195 -0.0014660775195807219 
.....	-0.006891950964927673 -0.0029805852100253105 -0.005397572182118893 -0.0007089124992489815 0.006502904929220676 -0.0035682115703821182 0.0003709776792675257 0.003023895202204585 0.0016987379640340805 0.0051952810026705265 9.825220331549644e-05 -0.0035079186782240868 -0.0006682148668915033 0.006145194172859192 -0.0026115053333342075 0.0013115431647747755 -0.002045772038400173 -0.0037306693848222494 0.0002473921049386263 0.000858725281432271 0.007896787486970425 0.0005552631337195635 0.002265430986881256 0.004299459978938103 0.003592594526708126 0.0015886537730693817 -0.0028156687039881945 -0.00704168900847435 0.005197132006287575 -0.005735559388995171 0.0001606771256774664 -0.005219854414463043 -0.0034544747322797775 0.001229230547323823 -0.0009441636502742767 0.001245842780917883 0.007195429410785437 0.0006940758321434259 0.0010702991858124733 -0.0010334146209061146 0.004554080776870251 -0.00776577228680253 -0.007121201604604721 -0.0010473530273884535 0.001834642025642097 0.0015615066513419151 0.0020808707922697067 0.001119494205340743 0.0014208832290023565 -0.0014172331430017948 0.00313797639682889 0.007791973650455475 0.0019328678026795387 -0.006144267972558737 -0.003959439229220152 0.0076842643320560455 0.0029361476190388203 0.005265169311314821 -0.005726025439798832 0.0027473492082208395 0.0001695107202976942 -0.0059679183177649975 -0.003569978754967451 -0.00522439181804657 -0.0065446943044662476 -0.007276493590325117 7.13870394974947e-05 0.0005266217049211264 0.003352175001055002 0.0005505909211933613 -0.0004675709642469883 -0.005786790978163481 0.006283784285187721 -0.0003802771680057049 0.0014019716763868928 -0.0004650705959647894 0.006575096398591995 0.006869237869977951 -0.0050368099473416805 -0.001680378569290042 0.0015038256533443928 -0.0010429017711430788 0.002975414041429758 0.00013315328396856785 -0.005453849211335182 -0.006041847635060549 -0.005255646537989378 0.004563821479678154 0.0014270083047449589 0.001033266307786107 0.007497978396713734 -0.006920408457517624 0.001691280398517847 -0.002751863095909357 0.0008511601481586695 0.005836674943566322 -0.003467464353889227 -0.007270637899637222 -0.002105573657900095 0.002890536328777671 
in	0.00011266460205661133 0.0035837367177009583 -0.00011889297456946224 0.0035778225865215063 -0.002204430988058448 -0.0030903108417987823 0.0013757956912741065 0.0008221082389354706 -0.002472855383530259 -0.0006543116178363562 0.0038412348367273808 -0.00048038430395536125 0.00043041491881012917 0.0005649807280860841 0.0036936276592314243 0.0022113339509814978 -0.0038426234386861324 0.003151019336655736 0.003043435513973236 0.003275304799899459 0.0018516092095524073 0.0013318939600139856 -0.004612810909748077 -0.003616299480199814 0.0011431684251874685 0.0007636265363544226 -0.0013146871933713555 0.0002811549056787044 -0.004689840599894524 0.00010513085726415738 0.004226605407893658 -0.0037810304202139378 -0.0022519214544445276 0.0013821745524182916 0.0005230943788774312 -0.0022767719347029924 0.004941546358168125 -0.0047014495357871056 0.0031386648770421743 0.0035583344288170338 -0.003761798609048128 -0.00016553181922063231 0.002104949438944459 0.001782019971869886 0.002950557041913271 0.002604288747534156 -0.002526475815102458 0.0028478126041591167 -0.004668861161917448 0.0018514653202146292 0.0018680699868127704 0.004163084551692009 0.002332830335944891 0.003757040947675705 1.5995306966942735e-05 0.0015434665838256478 -0.0011176662519574165 -0.0021023901645094156 -0.001890731044113636 0.0004484631062950939 0.002485299715772271 0.0032769085373729467 -0.002080068690702319 0.0007496409816667438 -0.002179098781198263 0.0007260365528054535 -0.002183104632422328 -0.0015808828175067902 -0.0007055507157929242 0.004435372073203325 -0.0014916985528543591 -0.0012899056309834123 -0.0034796050749719143 0.003310872707515955 -0.0014613231178373098 -0.002076423494145274 0.0016982625238597393 0.00027658772887662053 -0.0015091171953827143 -0.0027713251765817404 0.0037838208954781294 0.001557940966449678 -0.004728802014142275 0.0013161174720153213 0.002994424430653453 -0.00286583648994565 -0.003767878981307149 0.002660475904121995 0.0008304003858938813 -0.0012618739856407046 0.0009347545565105975 -0.0007598093943670392 0.003682920476421714 0.000501701608300209 -0.004084664862602949 -0.00026238663122057915 -0.004953052848577499 0.000939155463129282 -0.0038496453780680895 -0.0016519604250788689 
schon	-0.007976837456226349 -0.006808657199144363 0.007214278448373079 0.0009811129420995712 0.0027436960954219103 -0.0029961923137307167 -0.005220436491072178 -0.0005813445895910263 -0.0015176832675933838 0.0053323740139603615 -0.0015674028545618057 -0.0001643726136535406 0.007523199077695608 -0.0014098603278398514 0.0034610105212777853 0.00692401546984911 0.0006019023712724447 -0.004445420578122139 0.004489109851419926 0.003579848213121295 -0.001680846093222499 -0.003130560275167227 -0.0016664110589772463 -0.0015365899307653308 0.0032672055531293154 0.002919152844697237 -0.005770192481577396 -0.00128277949988842 -0.0012635132297873497 5.447142757475376e-05 -0.0020522279664874077 -0.0011539391707628965 -0.0038413654547184706 -0.0015949064400047064 0.004909369628876448 -0.00142991216853261 0.006447433494031429 -0.003313871566206217 -0.004169781692326069 -0.0017209111247211695 0.002743832767009735 0.006801564246416092 0.0005557832773774862 0.00380687671713531 0.00013803900219500065 -0.002504949923604727 -0.0047940779477357864 0.007293341681361198 -0.003895298345014453 0.0013424772769212723 0.0022974805906414986 0.0028916699811816216 0.0035825080703943968 0.005278796888887882 -0.0073750214651227 -0.0007348235230892897 0.0027615318540483713 0.001228016335517168 0.0005445368587970734 0.0056643616408109665 -0.00022038607858121395 -0.004909817595034838 -0.0022672987543046474 -0.005644649732857943 -0.0003506648354232311 0.0013448033714666963 0.0008585851173847914 -0.00387120945379138 -0.003941163420677185 -0.007399390917271376 0.000709097133949399 -0.007211659103631973 0.004842187277972698 0.007420632056891918 0.0049788253381848335 -0.007106553763151169 -0.0025013808626681566 0.0016759892459958792 -0.00604792358353734 -0.0005226247012615204 0.0002418425865471363 0.0008504185825586319 -0.008000895380973816 0.005066174082458019 -0.00712507963180542 -0.0008573182858526707 -0.0006323098205029964 0.007855940610170364 0.0020254049450159073 -0.0006780496332794428 0.002050363225862384 0.004358534701168537 -0.0035276045091450214 0.0007915969472378492 -0.003730418160557747 0.0033637555316090584 0.00500467186793685 -0.0027420527767390013 -0.0011898563243448734 0.007370693609118462 
:d	-0.002492334693670273 -0.0005584727041423321 -0.0027928268536925316 -0.006777194328606129 0.0014687121147289872 -0.000860442640259862 0.0010811765678226948 0.0029450238216668367 0.000519909430295229 0.006849438883364201 -0.004263726063072681 -0.002916523488238454 0.0016764680622145534 0.003392312675714493 -0.007471667602658272 0.004456514026969671 -0.0013707937905564904 -0.006055493839085102 0.0038859753403812647 -0.0004747596103698015 0.0010880662593990564 -0.0012137106386944652 -0.0008192243985831738 0.002702805446460843 0.007739859167486429 -0.0022758599370718002 -0.007210302632302046 -0.0020211669616401196 0.00594310462474823 0.0016016492154449224 0.0008108909241855145 -0.0007388629019260406 -0.00283050793223083 0.0014804042875766754 -0.0039899349212646484 -0.0017327353125438094 -0.0005183345638215542 -0.007760588079690933 -0.0010068356059491634 -0.0027226111851632595 0.00014467141591012478 -0.0038252363447099924 -0.0033053283113986254 0.007001778110861778 -0.0015440843999385834 -0.0047689140774309635 -0.001352144405245781 -0.0012547895312309265 -0.004041642881929874 0.006927885115146637 0.0003074829000979662 -0.0009903570171445608 0.0042303092777729034 -0.005509703420102596 0.00037938496097922325 -0.000552422134205699 0.00462965527549386 0.000838257372379303 -0.00381510891020298 0.005776137113571167 -0.0044756000861525536 -0.0002007950097322464 -0.007581336423754692 -0.006577709689736366 0.000821396242827177 -0.002490321407094598 -0.0035029936116188765 -0.0058072395622730255 0.0013782228343188763 0.0017494168132543564 -0.005124965682625771 -0.0028442437760531902 0.003667389042675495 -0.0061531951650977135 0.00458241393789649 -0.002236537868157029 0.007064660079777241 -6.367266178131104e-05 -0.007293557282537222 -0.003948214463889599 -0.0031924161594361067 -0.004610974341630936 0.0055276257917284966 -0.000785543117672205 -0.0011097502429038286 -0.006750952452421188 -0.0020633917301893234 0.005191517062485218 -0.0015201512724161148 -0.007973970845341682 0.0023668152280151844 -0.0028234883211553097 0.002011003904044628 -0.00321918074041605 -0.0037987532559782267 -0.001672771293669939 -0.0064260829240083694 -0.0007109881844371557 -0.006422704551368952 0.0016510381828993559 
video	0.0001401584013365209 -0.004883639980107546 0.0015755989588797092 -0.0028439078014343977 -0.002910449169576168 -0.0013679193798452616 0.0020994970109313726 0.0018218641635030508 0.0025628474541008472 -0.0012767636217176914 0.0015792265767231584 0.00450609577819705 -0.004335980396717787 0.0004680439888034016 -0.0006971150869503617 -0.0036447092425078154 -0.0023445822298526764 -0.0019662559498101473 0.0016556463669985533 -0.0017101768171414733 0.00040153227746486664 -0.0031048785895109177 0.00011455824278527871 0.0019791051745414734 -0.0024759636726230383 0.002765180543065071 0.0029800476040691137 -0.0018398056272417307 0.004338449332863092 -0.0030023250728845596 0.0039435760118067265 0.003621551441028714 0.0007853894494473934 -0.004443514626473188 -0.00012336482177488506 -0.0029970514588057995 0.00014248423394747078 0.0010346929775550961 -0.0037991697899997234 -0.0037355481181293726 0.0015764218987897038 0.0034545015078037977 0.004429891239851713 0.0031230831518769264 -0.0008302998612634838 -4.764008554047905e-05 0.002087243366986513 0.0006867285701446235 0.004421023186296225 -0.00493251346051693 0.004348400980234146 3.8414422306232154e-05 0.002284073503687978 0.00026462989626452327 -0.0015613530995324254 9.973606211133301e-05 0.002734837355092168 0.001222384860739112 0.0021144214551895857 0.0003892422537319362 -0.003237463068217039 0.0030168432276695967 -0.0032701855525374413 -0.001749632996506989 -0.000650480214972049 -0.003272847505286336 -0.0039044038858264685 0.002190232276916504 -0.0017496355576440692 -0.00391965638846159 0.0007542302482761443 -0.004691657610237598 -0.00437738373875618 -0.003961464855819941 0.004241763148456812 0.0040551708079874516 0.0009433555533178151 0.002290775766596198 0.003515254007652402 0.004502246156334877 0.0032002583611756563 0.0016822745092213154 0.004605515394359827 -0.0038128970190882683 -0.004930458031594753 -0.0003352071507833898 0.0008010985911823809 0.0016514721792191267 -0.003911121282726526 0.0017343666404485703 0.00043195910984650254 -0.0010910927085205913 -0.0008717888267710805 -0.0007232813513837755 -0.000523764465469867 0.003930313978344202 -0.0007490814314223826 -0.0021554427221417427 -0.0026998023968189955 0.0025537018664181232 
ein	0.0012167624663561583 0.0004891955759376287 0.0011284779757261276 -0.00020637665875256062 0.0010506431572139263 0.007308945059776306 -0.0014272716362029314 0.0077142054215073586 -0.0036851726472377777 0.003722765017300844 0.00643489696085453 0.004279214423149824 -0.0013863977510482073 -0.0013640820980072021 0.003769081085920334 0.0015808029565960169 -0.00023366347886621952 -0.001623015501536429 0.003801368409767747 -0.001219456666149199 -0.0017204687464982271 -0.0030891692731529474 0.008041218854486942 0.00016800710000097752 0.00695960596203804 0.002573970705270767 0.00011580507270991802 0.0017136106034740806 0.005684138275682926 -0.00011786539107561111 -0.00032443180680274963 0.007450690492987633 0.0005171056836843491 0.001720897387713194 -0.0011259594466537237 -0.003952581435441971 -0.0024524666368961334 -0.005730136297643185 -0.0015533330151811242 0.006341010332107544 0.005822265520691872 -0.000793184619396925 8.290470577776432e-05 -0.007140845991671085 -0.007764594629406929 0.001184121472761035 0.0011725767981261015 0.006229032762348652 -0.006783823482692242 0.003996905870735645 0.00081846141256392 0.004693055059760809 0.005806942004710436 0.005693648476153612 -0.0066513074561953545 0.0016559949144721031 -0.0007961587980389595 -0.0013894158182665706 -0.0023356322199106216 0.0005616850685328245 -0.0036346986889839172 -0.00034755049273371696 -0.008080913685262203 0.0003421271685510874 0.0015663029626011848 0.001922016846947372 -0.005788160488009453 -0.0017384405946359038 -0.001351083628833294 -0.0068618543446063995 0.001724385074339807 -0.006380260922014713 -0.0058651636354625225 0.0033164522610604763 -0.0006113208364695311 -0.0001502858940511942 -0.0015506624476984143 -0.0036361112724989653 0.00015236600302159786 0.005209708586335182 -0.007136029191315174 0.0015501875896006823 -0.004418481141328812 0.002599972067400813 0.0005886501166969538 -0.0027339651715010405 -0.004815833177417517 0.0020944983698427677 0.005623885430395603 0.00479836855083704 0.0035212733782827854 0.0007112242747098207 -0.005083390511572361 -0.00186571991071105 -0.00174580083694309 0.0017478099325671792 0.0025530504062771797 0.00018536788411438465 -0.0006028981879353523 0.00319693679921329 
-	-0.008037553168833256 -0.007779428269714117 0.0015321652172133327 -0.00225980207324028 -0.0007587224245071411 -0.0013052974827587605 -0.0004044775851070881 0.003588908351957798 -0.004076809156686068 0.0013172271428629756 0.004642992280423641 0.004075577016919851 0.0020277511794120073 -0.0014922937843948603 0.002021913882344961 0.0018495890544727445 -0.005217480473220348 -0.008089184761047363 0.007622008677572012 -0.0018748616566881537 -0.0002967307809740305 -0.007447969168424606 0.008026142604649067 -0.006842012517154217 0.0014661457389593124 0.005089836660772562 -0.004177750088274479 0.004275110550224781 -0.001788431080058217 -0.006297546438872814 -0.0043421462178230286 0.0014772519934922457 -0.0013785413466393948 -0.008030124008655548 0.00468096137046814 -0.002072154777124524 -0.0007025941740721464 -0.0005244319327175617 -0.0023170430213212967 0.005587315186858177 0.002163129858672619 0.0006306364666670561 0.0013311116490513086 -0.007339460775256157 0.0006704821716994047 0.0073848869651556015 -0.004739236086606979 0.003036702750250697 -0.000914551317691803 -0.00060049700550735 0.0038891141302883625 0.002227037213742733 0.007705230265855789 0.0039033382199704647 -0.003765091300010681 -0.0028316194657236338 0.0020860889926552773 -0.005024727433919907 6.513786502182484e-05 0.0011882898397743702 -0.003453355748206377 -0.002174858935177326 -0.002222898881882429 -0.005350503139197826 0.0003228173591196537 0.002903920831158757 -0.0018190293340012431 -0.007668680511415005 0.0014107052702456713 -0.0022066794335842133 -0.00246806675568223 -0.0010236040689051151 -0.007629917934536934 -0.0008923145942389965 -0.0015397346578538418 -0.0031288175377994776 -0.0034784330055117607 0.000938585726544261 -0.0011321313213557005 0.001991129945963621 -0.004585976246744394 -0.0060548498295247555 0.0001248316839337349 0.0011386291589587927 0.0002331987489014864 -0.005369397811591625 -0.005451226606965065 0.00035908957943320274 -0.000467345817014575 -0.0001436795573681593 9.336601942777634e-05 0.003316344926133752 -0.007326273247599602 -0.0008702969644218683 -0.0016744951717555523 0.006577848456799984 0.0070298900827765465 -0.00018350686877965927 0.0070679690688848495 -0.0004405793733894825 
ich	-0.0010645347647368908 -0.003322476288303733 0.00041843228973448277 -0.007112142629921436 0.0001693654339760542 -0.0011041699908673763 0.003260696539655328 0.0012004594318568707 -0.006354083307087421 0.004699660465121269 0.007653988432139158 0.0047053564339876175 0.0038818316534161568 -0.000886289868503809 0.002876843558624387 0.003922088537365198 0.0015869748312979937 -0.004772434011101723 0.005937468260526657 0.0007215244695544243 0.007665352895855904 -0.0022170410957187414 0.007319334894418716 -0.006903893314301968 -0.0006487334612756968 0.0036465455777943134 0.004540571477264166 0.00375761860050261 0.002094905823469162 -0.004743775352835655 -0.001992129720747471 0.001072275685146451 -0.004867399577051401 -0.0034865583293139935 0.006838519591838121 -0.0015225658426061273 -0.0027065291069447994 -0.002565031871199608 7.553072646260262e-05 0.0019508755067363381 0.004881241358816624 0.000861459644511342 -5.4602278396487236e-05 -0.0010224322322756052 -0.0030981062445789576 -0.0010702263098210096 -0.004671836271882057 0.002265429589897394 -0.0021448382176458836 0.0037397765554487705 0.0020265518687665462 0.0028687280137091875 0.005661602132022381 0.005049245432019234 -0.0024680618662387133 -0.004468592349439859 -0.001648246543481946 -0.00815733801573515 -0.0075677381828427315 0.005197610706090927 -0.003916952759027481 -0.0004885185044258833 -7.541081868112087e-05 -0.0006020476575940847 0.0014713217969983816 0.003662337549030781 -0.003431315068155527 0.0001431358978152275 -0.003408404067158699 -0.00562095083296299 0.004675695672631264 -0.00229540653526783 -0.0059755416586995125 0.0032686274498701096 0.0017598309786990285 -0.003975816071033478 -0.004573988728225231 -0.0066895876079797745 -0.00032442109659314156 0.0052656326442956924 -0.003035864559933543 -0.003864965168759227 0.0018329147715121508 -0.0016857411246746778 -0.0066373310983181 -3.095483407378197e-05 -0.0002478144597262144 0.0077581750229001045 -0.0017385059036314487 0.008003773167729378 0.00291614537127316 0.0013921998906880617 -0.005701710470020771 -0.0004369963426142931 0.0008037076331675053 0.002689925255253911 0.0025057385209947824 -0.0005697086453437805 0.006416745949536562 -0.0006602741777896881 
is	-0.0009486034978181124 -0.0039027042221277952 -0.0011053546331822872 -0.0019352446543052793 0.006062912754714489 -0.004507285077124834 -0.004691119305789471 0.0079337228089571 0.00538183469325304 0.0018249143613502383 -0.0006287724245339632 -0.00019146106205880642 0.0008578074630349874 -0.0014949645847082138 -0.005852985195815563 0.005116386339068413 -0.0002479038666933775 -0.006758334115147591 0.00012086215429008007 -0.0015724909026175737 0.0005561546422541142 -0.0005819720681756735 0.003040923969820142 -0.0012439072597771883 -0.0007378354202955961 -0.008093338459730148 0.0012855338864028454 -0.007249336689710617 0.0060148946940898895 -0.002816639142110944 0.007908772677183151 -0.0011994731612503529 -0.0004115945193916559 3.299838863313198e-05 -0.0048685502260923386 -0.002690438413992524 7.165246643126011e-05 -0.005201215855777264 0.0017956099472939968 -0.0011028738226741552 0.005497598089277744 0.0008298242464661598 -0.0023634545505046844 0.00717226741835475 0.0023405184037983418 0.001306105637922883 0.007519863545894623 0.002911820774897933 -0.006765181198716164 -6.465427577495575e-05 0.00041908351704478264 -0.00170142762362957 0.0033343848772346973 -0.007074796129018068 -0.0049663414247334 0.006934034172445536 0.003032504115253687 0.0077383853495121 0.00044870865531265736 -0.0007557179778814316 -0.004421653226017952 -0.0016424631467089057 -0.006667791865766048 -0.0013713426887989044 -0.0021463835146278143 -0.005244949832558632 -0.0009439315181225538 -0.0033674652222543955 0.0034976620227098465 -0.0030522390734404325 -0.0046346914023160934 -0.0006992535199970007 0.0029462059028446674 -0.005937117151916027 0.0003547512460500002 -0.0011875557247549295 0.005445150658488274 0.004432342015206814 -0.0049365004524588585 0.0007936395704746246 -0.005633375607430935 -0.007757560350000858 0.00035427999682724476 0.004645951092243195 -0.0019144397228956223 0.0013548324350267649 -0.00736272195354104 0.0018473960226401687 -0.0008067400194704533 -0.007149607874453068 -0.0010909149423241615 0.000938513083383441 0.0006355023942887783 -0.005235947668552399 -0.006044866982847452 0.0007574388291686773 0.0009453559760004282 0.00028069852851331234 -0.0022362356539815664 0.004502006806433201 
oder	0.001091587357223034 -0.0007368749938905239 -0.0022405979689210653 -0.003367695491760969 -0.0007312970701605082 0.0009067296050488949 -0.006734524853527546 0.0005644620396196842 -0.004658423829823732 6.927573122084141e-05 -0.0025180925149470568 -0.004456049762666225 0.0009788195602595806 0.0031224098056554794 -9.799562394618988e-05 0.0009098791051656008 -0.002989115659147501 -0.007550958544015884 0.006350468844175339 0.0034331982024013996 0.00043266359716653824 -0.0013863302301615477 0.007157592102885246 -0.007991163060069084 0.003548253094777465 0.003517855191603303 -0.002220411552116275 -0.005268261767923832 0.0019328712951391935 0.0006687655113637447 -0.0021713299211114645 0.00034208688884973526 -0.0037299268878996372 0.0053001753985881805 0.0026615955866873264 -0.0003044535405933857 0.0016268918989226222 -0.007034745067358017 -0.006512240041047335 0.003878356423228979 0.0042678616009652615 0.0009054876863956451 -0.0035240009892731905 -0.004907284397631884 0.002414111280813813 -0.008003327995538712 0.0007255699019879103 0.004396998789161444 -1.4238990843296051e-05 7.68653117120266e-05 0.0015412881039083004 0.007039797492325306 0.005018402356654406 0.0028068874962627888 -0.007414204068481922 0.001479127211496234 0.0009799236431717873 -0.00590962078422308 -0.006405964493751526 0.005519207566976547 -0.004404759034514427 -0.006133737973868847 -0.0014046321157366037 -0.0023217438720166683 -0.003309494350105524 0.0007875608280301094 -0.0064901020377874374 -0.002366309519857168 -0.0006111820694059134 0.0010223891586065292 0.0006862569134682417 0.0004075004253536463 0.005320228170603514 0.006776447873562574 0.0005522076971828938 -0.008064160123467445 -0.007596843875944614 -0.004127870313823223 -0.003351678838953376 -0.0008496909867972136 -0.005938693881034851 -0.006009262055158615 -0.0017469272715970874 0.0016745260218158364 -0.007277052383869886 -0.0009227297268807888 -0.0064701903611421585 -0.0011879638768732548 0.0018166793743148446 0.0017009642906486988 0.001534147304482758 0.0003608947154134512 0.0024618362076580524 0.0009494826663285494 -0.0005754404701292515 0.004142816178500652 -0.0009915386326611042 -0.004940692335367203 -0.0057322061620652676 -0.001736941048875451 
wird	0.010835201479494572 0.005423729307949543 -0.015255812555551529 0.00589824840426445 -0.006272647064179182 -0.0063509587198495865 -0.009184794500470161 -0.01278106402605772 -0.006544831208884716 -0.009627485647797585 -0.015440145507454872 0.007504249922931194 -0.014125635847449303 -0.008515470661222935 -0.011204888112843037 -0.009844128042459488 0.009127774275839329 0.014445994980633259 -0.008490296080708504 -0.008819014765322208 -0.006291978061199188 0.012268822640180588 -0.011620048433542252 0.005889938212931156 -0.009641608223319054 -0.00608472665771842 0.012425096705555916 -0.008643293753266335 -0.006380409933626652 0.013036506250500679 0.010259876027703285 -0.007733166217803955 0.012893464416265488 -0.012873707339167595 0.005438807886093855 0.01410199236124754 0.01352637354284525 0.008294196799397469 0.010868302546441555 -0.005192650482058525 -0.013446690514683723 0.014126662164926529 -0.012113036587834358 -0.004576759412884712 -0.012532791122794151 0.012719236314296722 0.011303157545626163 -0.011889909394085407 0.007778326980769634 -0.005100463517010212 -0.0070552825927734375 -0.011237110942602158 -0.013086500577628613 -0.00504138320684433 0.011805711314082146 -0.010342249646782875 -0.014914261177182198 -0.006410881876945496 0.013401318341493607 -0.008656761609017849 0.00807187333703041 0.007025996223092079 0.011227494105696678 0.007659330498427153 0.013634084723889828 -0.01409127563238144 0.006218274123966694 0.014173983596265316 0.010635176673531532 0.013782990165054798 0.011958908289670944 0.010284977965056896 -0.0071942792274057865 -0.01380622573196888 -0.0056747328490018845 0.013752277940511703 0.015159097500145435 0.0123464185744524 0.011202692985534668 0.012977780774235725 0.013495145365595818 0.010356895625591278 0.008214661851525307 -0.01448503416031599 0.010044519789516926 0.006657835096120834 0.005691995844244957 -0.01505262777209282 -0.00661635585129261 -0.010665852576494217 -0.008119512349367142 -0.007615424692630768 0.012779619544744492 0.01442717108875513 0.011580323800444603 -0.014788663946092129 0.006104093044996262 -0.014489417895674706 0.007458246313035488 -0.012647239491343498 
